0,1,2,3,4,5,6,7,8,9,10,11,12,13,14,15,16,17,18,19,20,21,22,23,24,25,26,27,28,29,30,31,32,33,34,35,36,37,38,39,40,41,42,43,44,45,46,47
-1.9225062831407835e-09,-2.0477495871013394e-08,-5.916990745625806e-08,0.03621365782718594,-5.270322952267625e-05,-1.1968151654483525e-05,-3.649474316447363e-06,-6.480538333812313e-05,4.792965819174013e-07,0.0004618099265680041,3.188495775251807e-07,-0.005196105219337918,-1.4777460922982767e-05,0.008128353694849183,5.208455228916893e-05,2.2188324898706146e-05,0.008216992564496012,3.668842625460266e-05,7.319373697726485e-05,-0.22163410849374018,0.004285072623231757,0.08830733994572937,-0.1106612319374401,-0.00011572714845048998,0.6528527990896403,0.0003490902050469872,2.8652511503081037e-05,0.0002627786818044195,-0.0761309443782511,-9.339306256556915e-05,-8.130957817413861e-05,-0.16555799193138043,0.01451786145449021,-0.01289232831319585,-0.0004430149462211778,-0.00032822457079862083,0.5932722729324382,-0.004823270360673204,0.27526559575701776,-0.0008069792810305074,0.00040573651149092586,-8.477150209187967e-06,9.436565531683975e-06,-0.13645509388456248,5.1136800295764676e-05,-0.15217321115616864,0.00025768004435142535,5.502897098327407e-06
-1.267105790796959e-07,3.1262176186858854e-07,-6.821121006179976e-07,-0.1529026587525411,0.0003543304290748811,9.650343099873382e-05,3.999561166836826e-05,0.0008360947380750229,-2.4280231171306345e-05,0.46333153321746495,5.89753666073043e-06,0.21665876875416068,-0.0005114367181656216,0.4700050461977363,0.000110147491492782,7.155485543226016e-05,-0.3551300824453749,-0.000508224874641331,1.5194742865073943e-05,0.08027778820958453,0.0018435893387391791,0.040764144892132995,0.1794510243878608,-0.00014302497175000133,0.06660406068747815,-0.00028168024475270375,-0.0001962724599182575,0.0023059892962616,-0.19736378782381664,-9.399885038905543e-05,-0.0002602047917834267,-0.20445630072168586,0.014426003766689448,0.056742968137552086,-8.948277564030824e-05,1.348564086010325e-06,0.02905147527626284,-0.0004022942269373004,-0.2628598154889101,0.00044754590286612365,-0.0001544817529051688,1.75262643181791e-07,7.60382576081808e-07,0.2965968728037899,0.0001766249575523615,-0.2848401102233701,0.0004523160529228327,7.461365773825354e-06
-4.5041252252139257e-07,1.253567869352309e-06,-6.692299103727311e-06,0.8165470046662285,-0.0007409918113202251,-0.00013918501914354393,-3.1359371242061136e-05,-0.0005122188994670629,1.7610130286293478e-06,0.003921800165595936,1.7523143357327783e-06,-0.12274910696111895,4.3802430597932275e-05,0.06717176999242132,-0.00013485135058906745,-1.780369803418381e-05,-0.19317521546847558,-0.0003270326255344299,-0.00011686664794373458,-0.026920439760023642,-0.0058151099672666805,-0.12338298305177542,0.07185498250902345,-0.00011428717396761183,0.019662485845468026,-0.0001945490158101644,-2.9096623323417604e-05,-1.453429683944087e-05,0.03379902867671565,5.036471182462129e-05,5.506006936177234e-06,0.05711343478824295,-0.005449254902277832,-0.03374052382230559,0.00024594423070381207,0.00011244832049427475,-0.155344669412978,0.0011049166521887026,-0.06836782032598536,9.31250862883284e-05,-1.166192860829281e-05,-2.5213845057603537e-06,6.055002716230344e-06,-0.2278724426947315,0.0001340548051565035,-0.4104883170327187,0.0007060927439059184,1.693636947810177e-05
-1.2882086650566935e-07,3.3065448790062396e-07,-8.343513480909461e-07,-0.10752818086047727,0.0002830646977413742,7.769789915028954e-05,3.21004831601876e-05,0.0006548370082142602,-1.5614500254994533e-05,0.23732061346805544,-2.1769732890023968e-07,0.36362300383261187,-0.0003228388507678456,-0.08023842508654437,0.0007015293522111225,0.00016471891060727958,0.2747272403632329,0.0005548743194715003,0.00031993793448021484,-0.6314388133998562,0.0115612424521861,0.2388421778862008,-0.12118786037344997,0.00014462603391783463,-0.20207916620292107,-7.310623658655626e-05,-1.783938168539646e-05,-4.558527960322489e-06,0.02126291487674565,3.4859112681869294e-05,-2.9435549991695255e-05,0.022647826558826255,-0.002912981739451238,0.07726098628808908,0.00011475871050283174,0.00011786730360876751,-0.19919719306211522,0.0015760956006265541,0.017396006059861212,-1.314628403200383e-05,9.555746372049308e-06,-2.169423076553754e-06,4.795093485347823e-06,-0.23749334720382345,9.323731587155092e-05,-0.3212981977997602,0.00055806834921025,1.385795938431649e-05
-1.1603201766582074e-07,-2.6889590154263074e-09,-3.891129526018757e-07,0.11583605699735167,-0.0001998436676766231,-5.2182838168199264e-05,-2.5489956097253343e-05,-0.0005467820903527572,3.064630198770352e-05,-0.5514337784230389,-9.623908480934304e-06,0.3469020271710782,-0.00016760162000843497,0.05617355486189807,-0.00016975135313187524,-0.00011443426079006742,0.35363715025883263,0.00048667431855515907,-0.00011062960974933295,-0.027736894744200335,-0.01261526685419031,-0.2706869935832679,0.004775210957532168,-0.0001412206003798806,-0.05865138976099457,-0.0003670885024725913,-0.0001425684622895582,0.0013126057293539291,-0.07826226894563248,-2.020212374734657e-06,-0.0004273721047196751,-0.34087995487573314,0.02428105913251096,0.09090154471757111,-0.0002100335924432375,-4.323425740448494e-05,0.09592890533194723,-0.0008950811128304632,-0.18797013164445422,0.00029706953751794217,-9.583273584872791e-05,-3.760553286534077e-07,3.698151271825306e-07,0.3622282247393648,0.00016124149146339034,-0.22216959735892186,0.00034276062258446955,4.782863507271675e-06
9.14499736376785e-09,-2.2119749916172397e-08,4.4565260721643774e-08,0.01174438054950334,-2.5941874102127778e-05,-6.975964242654158e-06,-2.680242643200194e-06,-5.507700340108211e-05,6.209353922591309e-07,-0.014812691096223109,-5.407840019773032e-08,-0.06234487321619156,0.00011372667970518538,-0.12538940166905094,7.071304847040178e-05,2.2437047582442464e-05,0.0479626027626565,9.185261247992722e-05,7.741959826194679e-05,-0.007797704154177899,0.012660823875424424,0.2810987651903565,0.6196462709922097,-0.0001743427704388697,0.08434294023695085,6.104629676239418e-05,0.000269996203232474,-0.004105476574824659,0.44263042369708144,0.00030487436378959107,-0.0002731921378782668,-0.19123711624643774,0.012990758594622816,0.07425985082835816,-7.438058822538117e-05,5.6623282690327686e-05,-0.16339104782286104,0.0015894496109427028,0.38337703220213804,-0.000618129737065663,0.00020626442470261376,-2.7625717058404077e-06,1.062963469333391e-06,0.2815354620020722,0.00010521254385537334,-0.12761826938339207,0.0001918295200170668,2.276601179083137e-06
3.316655648285817e-07,-2.0015342159873802e-07,1.183458371378656e-06,-0.08012270284418777,4.0381504411281676e-05,2.6864953962438483e-06,2.8606249496222287e-06,3.9115123239042446e-05,-1.2565133830760275e-05,0.1366550098900985,1.5569136774532126e-06,-0.3270376638192851,0.0005197072155147246,-0.6251312493675031,0.0004585731181270854,0.00013296338333461648,-0.1369039597149309,-0.00016456732905802856,6.600998921380024e-05,-0.045093093820914684,0.0032234832338369985,0.06530385728263004,-0.19927877154670667,0.00014275405027962227,-0.0520044807541835,0.00011630710189877776,3.260992135075218e-05,-0.00037291764676027035,0.03412946801426399,2.0487097347980207e-05,-0.0003147332108653588,-0.308955777626614,0.02369949494097883,-0.25566914255374046,-7.313374477891115e-06,-2.8323710928195802e-05,0.058832582123825965,-0.0005545919512696443,-0.3348279966920965,0.0006413923340446311,-0.00025843321520509617,7.598295199225892e-06,-5.901120735646886e-06,0.2403746227039345,0.0001387650986346598,-0.27165378560160147,0.0004548874978249337,1.132555439606818e-05
5.628611680776044e-07,-2.213163240103612e-06,7.845482620114168e-06,-0.29095658718317824,-0.00023535613957864174,-0.00010220339582538448,-5.6355066787268395e-05,-0.0011724314972609258,3.3553921233808986e-05,-0.4592387262680715,-2.9606903289184905e-07,-0.34584920238019073,0.00018800266221816563,0.2675387500379477,-0.0006662881431688576,-0.00011765348292926027,-0.05953440127044195,-0.00011124932710461616,0.0001112224688402184,0.112987200469125,0.0189100258871593,0.40718373603448543,-0.15708808217363615,0.0003163911201778536,0.13633380431830563,0.0006791188395260317,8.928976126512436e-05,3.652604975441105e-05,-0.09892697905344065,-0.00014623400377053537,4.00949729753084e-05,-0.05984004130322494,0.006437023785193623,0.11789675706871244,-0.0003349794540764498,7.472791513051402e-05,-0.3089376473600386,0.003044229088807811,-0.08139986936083392,0.0005731687380262086,-0.0003786006999602092,1.220956911579859e-05,-1.5028377779426493e-05,-0.19957312241828404,2.3695388961401722e-05,-0.34395644278850435,0.000668760260542405,2.802147343476594e-05
4.828406202420941e-09,2.2598491904885244e-08,-1.2718479047631428e-08,0.0016255201752103422,-4.370432409316708e-06,-1.7436489476329705e-06,-2.7578319829268546e-07,-1.0445624575385632e-05,-7.463679923908728e-07,-0.0012156442382357637,-7.894190544139913e-08,-0.029664484173690792,2.64409850297239e-05,0.009417112372050866,-9.771003172187099e-05,-3.9316900052472346e-05,0.09194623939585977,0.00012380842496916242,-2.7514281541518646e-05,-0.027384879553819116,-0.002205999707546568,-0.04616715165778704,0.0982080635516138,-9.214224344812166e-05,-0.022788836999600937,-0.000322011318384197,-0.0004238333368421152,0.005936117369232053,-0.6011341035159476,-0.00038655063979560093,-4.664507064040692e-06,-0.07267465883550182,0.007191498978436466,-0.5852555254398344,0.00043889909643774405,0.0001144318439779723,-0.25921713804891483,0.002405994466033477,0.4330358117408554,-0.0006745527899756137,0.00021445417218120987,1.5388054616487114e-06,-1.1138003304357957e-06,0.10799855086645128,3.666494191340926e-05,-0.04340217131694418,6.590325873116774e-05,1.089660025242089e-06
-2.3763389942489197e-08,2.9033720283165497e-08,-1.3240100931451226e-07,-0.004875922269439611,2.73700613068226e-05,8.846365502021759e-06,3.86735871716895e-06,8.706630934702191e-05,-1.3057905258201656e-06,0.03798584518511308,2.795491672312242e-07,0.1258267144648657,-0.00020495987926544471,0.15900879625244307,8.007449891974247e-05,3.8249293551626115e-05,-0.2040933168869151,-0.0002988856439335375,-1.2731037547825808e-05,0.07965654623032588,-0.006394963603579837,-0.14646849730947328,-0.63172125367684,0.00025583641732137717,-0.021049372667011967,0.0003470004273064344,0.00030967384134924277,-0.0041431960188309195,0.40696544821649544,0.00024763062542351743,-6.891124054104569e-05,-0.050219961849538565,0.0035633903979016158,-0.08325815241052996,7.66994173886947e-05,6.307135690396398e-05,-0.17623705667753994,0.001721181641996597,0.43783731165712164,-0.0007117885007234285,0.00023908883743710372,-2.672586520568812e-06,1.0153092846494962e-06,0.27463010041021263,0.00010174107649016566,-0.12295395560544378,0.00018479823095129665,2.215089566141788e-06
-7.069284351553625e-08,5.747359741243862e-07,-1.392624031619397e-06,-0.12338876663400807,0.00034866914292010703,9.398580956764007e-05,3.847026058703653e-05,0.0007609610415376661,-1.920268032976241e-05,0.2481691005790899,-7.685137389605943e-07,0.2387690757712673,-7.386172195664787e-05,-0.30063685571141996,0.000600930816108594,0.00011132269497527137,0.30268289372415175,0.0005290910896389527,0.00011566757136505026,0.6104211718252747,-0.007897175731643953,-0.17301514523895248,-0.011064797022182132,-0.00024235570655636984,0.23349310596835188,-0.00036801854827442484,-0.0001379379451862169,0.0011736337931500028,-0.06101918164630266,1.5467222960806413e-05,-7.214983747959722e-05,0.023235923720137316,-0.003898144594989254,0.17219102699312133,0.00011343970137517625,0.00011721997187128777,-0.16642092050249027,0.0012179373047329568,0.07732854243038338,-0.0002087413083393279,0.00011793443755507847,-4.839421634071004e-06,8.662028155104441e-06,-0.24736364164822738,0.00010454659122147557,-0.31325338002319714,0.0005311351037103862,1.1156667723154788e-05
2.162123068684241e-08,-5.0213947497763016e-08,1.2783007972342775e-07,0.015933366884140536,-3.251762162958641e-05,-7.488524268331092e-06,-4.662893940995688e-07,1.2738369879375889e-05,-1.0582368354442481e-05,0.2396829058739715,7.5971238668852846e-06,-0.5382210458631125,0.00036938204179990124,0.1481952198004635,-0.0008561112945992881,-0.00023531091566151107,0.4315310925664932,0.0005599363124879389,-0.0001268956114584012,-0.10905207550516731,-0.00803508935847539,-0.17164214905690395,-0.07213885593136235,6.226838282433253e-07,-0.048527913755101834,-3.231715003230726e-05,-6.851465408360641e-05,0.0011198124518464103,-0.12948792601851736,-9.420875032509535e-05,0.0003302718792771881,0.29275937270876773,-0.0218514427458376,0.3232467543155807,-0.00016266671961346965,-4.31605040347554e-05,0.07548698551214307,-0.0006036363122975488,0.09794862395492149,-0.00021959735604389267,9.685192574931992e-05,-3.511348010684844e-06,1.9806082062096555e-06,0.3711043977722793,0.00014845868131544294,-0.187092255641765,0.0002830871267845886,3.4590879156758907e-06
1.908079898574176e-08,-4.277741678686783e-08,1.5164470581302467e-07,0.006728651357505913,-3.6646965277088886e-05,-1.2007698533961428e-05,-6.767854912968466e-06,-0.00015915257885612788,9.980588241429363e-06,-0.2278858616485959,-5.966649113211124e-06,0.2630149676844459,-4.6913405272771454e-05,-0.33284793366491394,0.0007101826060597559,0.0002011384644742981,-0.37412252803065815,-0.0004962459131721489,9.463354341190098e-05,-0.0065754047486665385,0.008448471765869162,0.18075243726149567,0.012494444951188911,8.306679796980671e-05,0.01703621706464844,0.00016149622640796013,-9.121655202036106e-05,0.0019698396535406427,-0.2581279556780303,-0.00021421526479488767,0.0006980159247251071,0.5768803907435696,-0.04186314154087254,0.21686760651424297,2.2053185819719296e-05,-3.6315441818383854e-05,0.0782418506288499,-0.0006579989156338175,0.1040996635055086,-0.0002455549668998707,0.00011216790299989339,-3.7418858448858872e-06,2.5009932898106524e-06,0.31397875286813653,0.00013449374095447035,-0.17636864419372916,0.00026887273663294564,3.4346297944301796e-06
-1.0045117461329314e-08,-7.210716487832478e-08,4.292944685613339e-08,0.04801412616493147,-8.009422372133666e-05,-1.8796901644094745e-05,-6.049674011731347e-06,-0.00010792340853723786,7.918987360176852e-07,0.006689117944317258,8.696511913183519e-07,-0.032859965256345526,-1.482255040779919e-05,0.03691746617121957,3.4540711262346205e-05,2.8474247285002332e-05,-0.02512620158371054,-4.425341659761018e-06,0.00012465074437706261,0.27250359467602764,0.010931156251037747,0.23631189679471898,-0.02078461459111064,0.0003653687063052895,-0.6504503184982555,8.013660920064104e-05,-2.656432819137414e-05,0.0006974998225868251,-0.09565830568550027,-8.247254876533872e-05,-0.00013606821663618055,-0.18632130991684684,0.015334503092699233,0.09054916622654101,-0.00047318133046043835,-0.000279245695738575,0.4910367704833391,-0.003946821844453102,0.2917458250330775,-0.0007835626555252433,0.0003797061897108254,-7.981231435004855e-06,8.807912536417414e-06,-0.17164426677483005,5.265405306230222e-05,-0.1811764601366389,0.00031290100398809705,7.52269412970845e-06
1.9100303532297004e-07,-4.874401184169793e-07,3.049158779052974e-06,-0.41720319453098775,0.0003794034610343902,6.812438428458754e-05,1.1668196909815412e-05,0.0001412146859150716,6.585415078011775e-06,-0.14944271378662494,-2.236038331479396e-06,-0.11229156206324946,0.00020472942077458717,0.007992510869724332,-0.0005839801944388975,-0.00018369715181341056,-0.24456199391769995,-0.0005606736186766306,-0.0005538915410432329,-0.18010875564318055,-0.028820506976052936,-0.6093041151989977,0.2674428707672498,-0.0003317560071752716,-0.12213553853827919,-0.0004949541807562224,6.320689355269931e-08,-0.0008953071369948072,0.15483929528290818,0.00015258627117095125,7.788583181471424e-05,0.13796763585083585,-0.0116343464703069,-0.10969388758201294,0.00033308151415200926,-1.073426278438528e-06,0.113129126301751,-0.0012461461365191836,0.08580191982369628,-0.00041188537474342153,0.000258252549244972,-8.494896504786228e-06,1.2767964009464894e-05,-0.23800368857301657,0.00011995819755820736,-0.32889441726390334,0.0005514483719493655,1.0922092513148802e-05
-4.716975568210202e-08,-4.1117582401325194e-08,1.314695005768891e-07,-0.02123950978545981,2.130575903565112e-05,4.812113584122834e-06,4.634773308331241e-07,1.2003063254009252e-05,2.620926728448023e-06,-0.017827047164917526,-5.4803707241910335e-09,0.09312519336019429,-0.00016568353833916743,0.19209800605595737,-0.00010933173118164288,-3.7062638687511074e-05,0.2881322261944877,0.00046989934589059977,0.0001660419773629744,0.17613167946929503,0.010475311311705782,0.2257905810320558,0.034173225232047875,0.00012551170988365026,0.01222910772693593,0.0004380537138325248,0.00031069796048844726,-0.003607158340055779,0.305502484953639,0.00013260279245950958,0.000562519708638731,0.4350085463652031,-0.03022917578643045,-0.5878759407887594,0.000640277498859509,-6.454981996459639e-05,0.23834023488082848,-0.0023244435394580926,-0.22582313036612908,0.00020561845719827026,-3.3558178235665673e-06,-2.8456052307842026e-06,4.826678033652151e-06,0.07948283931512239,0.00011176079121939392,-0.20973882854064832,0.00033896415092361153,5.950541807839067e-06
-0.17806481472274766,-0.0008345116045661866,-0.023526684757434486,2.3815121218310517e-05,-0.011832794201236925,0.005722656164825873,0.04920655088456061,0.03460686085717028,-0.18528192817784372,5.485679510520726e-05,-0.032607117786099815,0.00014179957897334452,-0.33479345843271924,-0.0006022022699493068,-0.4386424895665621,-0.13559569281227174,-0.00021806087669449286,0.025779866941669605,0.27624956273549395,-1.4667792101323735e-05,-0.17773251198273876,0.008648752373735125,-0.00035922418612964577,-0.0456925169641243,0.00010245795428372868,-0.43897303404164373,-0.10869659871657639,-0.0864447802809206,-0.0007435005147512754,0.28506020805090637,0.11286899019220724,0.0016521807959666822,0.023227312227293403,1.4652191642111534e-05,-0.0546181050176477,0.1032542802107151,0.0005360701053818948,0.07522753704238383,-0.0003273983922476439,-0.111852038171296,0.10427280944685487,0.17515572080662636,-0.06886087865327334,-2.005652031824707e-05,0.205371217420728,0.0003591617368126171,0.15577066014007576,0.20944263834720342
0.014526360141401438,-0.0005298487492693494,0.021945443962597913,-0.00034408645645578437,-0.5920971136035496,-0.12930913027710123,0.0028194225216966635,0.4533546720632351,0.011766741771407413,-0.000515244593415367,0.014954032225946753,-0.00020800264776290887,0.030086836748219284,2.4018873136010507e-05,-0.06368316081517564,-0.04088027650434508,0.00015604203892923642,-0.1411975902346299,-0.25881344269251666,4.564601724343531e-05,0.0746985075864733,-0.002794212587087532,-0.00022696665744225677,0.10666217297894684,0.00013852690885779334,-0.04218733134831667,0.10412774283711364,0.08582979112218676,0.00040470533536370745,0.21807536493079493,-0.012922054031506865,-0.010824617895638128,-0.14904352079545444,-0.0004172372238117127,-0.005328576540473571,-0.022279553570923427,0.001671962052277186,0.13867041362449614,0.0003472533379899963,0.11826898890126056,-0.10512853153624038,0.005769071899079879,0.0012892934928423804,9.628004446349858e-05,-0.27104836811586364,0.00046270553371833206,0.3162267907788725,0.0851216561297064
-0.0019277419391124627,0.0014038415971074937,0.005194776638728375,-0.0006503829898418203,-0.3232127686127575,-0.08535724014397728,-0.02829360804925208,-0.6775356406044108,-0.02117506935633056,0.0011335180435497346,-0.016769879592185014,0.0004186454585259897,-0.05961446468504804,-4.3754244725987015e-05,0.08863590899063131,0.15545315506781293,-9.283808847445839e-05,0.11657840922064347,0.25896494098536843,-3.030513847046523e-05,0.017725314144406847,-0.001412982632585846,0.00019902437006158975,-0.06975129530552274,-7.357574119895167e-05,-0.043606241371750426,-0.12690847526065158,-0.09289219858369141,-0.0007973896877348268,0.013834588685634624,0.007844644058807875,-0.002739693323920488,-0.03773562806832195,-8.668379032892615e-05,0.05751040729139263,-0.08343632010380292,9.220998935513525e-05,-0.03271916011042672,0.0006774719032490662,0.24566388764655808,-0.18958485399038674,-0.036477467563043285,-0.03721981632223232,8.485909721055347e-05,-0.27784378375279906,0.0004071984856472812,0.2930148939683038,0.0670234961538988
-0.008977820830937799,-0.002817447362347879,-0.0006854501575985491,5.744459605117237e-06,0.03203557872422286,0.05993324473127261,-0.020355366358721403,0.03853341292548971,0.07330434987609237,-0.0003693444849948343,0.019624024572867292,-0.0005058802007101122,0.1823899485511525,0.0006259726012427803,0.35037672931137553,0.3599579239428971,-0.0001237264999782517,0.1256353253031902,0.12837287522956084,3.5915532669798384e-05,0.423173848047199,-0.020180180544014544,0.0004668916499771583,0.07360718145284846,-2.1995065251539007e-05,-0.15508083053782618,-0.0873642481019483,0.15172555201243929,0.0017506312411039195,0.18376816298224902,0.0003671985605865507,0.010963642905577317,0.14617032059345217,0.0002185705256041269,-0.10774084544284002,0.08766334168814227,0.0005018678156493272,0.11456804330510233,-0.0009560379158437956,-0.38554764832390853,0.18035227051667882,0.28437373796491044,-0.18802728795614534,3.183692051085809e-05,-0.014762056654693732,0.000324561021711493,0.1850697467600868,0.10305574762051196
-0.031153689961727477,0.00010686524358722934,-0.00022742197363225967,-5.345976241739516e-05,-0.09380553665182571,-0.008945699033674299,-0.013300608961016508,0.09171905524156054,0.04505490509255393,-0.0002293516447091261,-0.02253087655520399,-0.0005856042137706874,-0.40736295537457745,3.361613810690847e-05,0.3292290453035265,-0.4176237941855366,-0.0001630207749375038,0.15369835702103807,0.05508581676091786,-3.898712359436752e-05,-0.16332391924262726,0.007274184818147746,3.449891583625758e-05,-0.08526342658970791,-9.567908269750297e-05,0.22432519612739857,0.0806681971122365,-0.04962866912004378,-0.0004205189263208768,-0.3221083897715918,-0.03939228958125367,0.001209675595755418,0.01854324697834229,0.0001604290931606877,0.053150047180234465,-0.08402562301162814,-0.001533377423054274,-0.1398074168163082,-0.0006430764686219963,-0.31606369951191327,0.1307190125305794,0.18596037397758697,-0.19941895131811585,7.166001826091284e-05,-0.14587521021784589,0.00038082223413475955,0.23801643912253614,0.07732841567883608
2.0491043858375815e-05,0.00031790783073930084,-0.0008158048268296546,0.0006890222801127445,0.05291680247822299,0.014183288959576466,0.005211045011376521,0.08989674939666302,-0.0012348962344543035,0.001472200119984468,-0.0003986389721061128,0.0018003230305266306,0.014017123465305342,-0.0006688795752701631,-0.05877900977517475,-0.020765796736298452,0.0004708958043892605,-0.015111849651431178,-0.029184620445289078,-0.00013867703724704705,-0.058607888629017973,-0.0004166101061869839,0.001612702913551623,0.030174765166915102,-0.0005503467201516979,0.1176451924565339,0.03685775275485767,-0.22444510165902284,-0.0006929897076909245,-0.020917355929296513,0.04171183290103316,0.06458135227689502,0.8790282312739621,0.0020590194053998773,-0.11887488687989971,-0.03557222187901036,-0.00024457477144731337,0.21628802537818628,-0.00033953031765334785,0.16198346411731673,-0.13337417534543305,0.0048932824840509405,-0.010692297224799955,-0.0003011193404377089,-0.11529115717320647,-0.00037835849144722317,0.11983168110048319,0.02751317611454593
-0.5205095172267207,0.007397162728841391,-0.10691453067526835,1.699722674368515e-05,0.09064532228009292,-0.42160309194705264,0.1314223052401914,0.029672432256149493,-0.34247941262390713,-0.00014967059574745175,0.16263160876274513,-0.00021601865226722865,-0.003501421025688152,0.00019374259772847894,0.151858363183462,0.14499154285133375,0.00012822909896176722,-0.041025309540392595,-0.051301705288460675,8.88472336743272e-06,0.10956225349434794,-0.0052750276164164455,0.0001652762066822201,0.012104798422036135,-3.771117192509003e-05,0.10181779407319164,0.14751848952830457,0.047676208810883476,0.0004134487517308901,-0.12407113239368543,-0.06926624393645647,0.00028492733694225874,0.002945624009638057,2.5718079686969124e-05,0.04323205368286962,-0.15191831199523698,-2.0725870371767964e-05,-0.0015974792845509086,0.0001616799026735197,0.07905921315095284,-0.027160916728737,-0.2182422834239382,-0.08038534411969196,-4.740926675151409e-05,0.2888207282293079,0.0003193124814116302,0.117699094185859,0.2668954739395933
-0.26159629499646475,-0.00903037105542883,-0.015302876582521724,-1.723818888178342e-05,-0.052593749591734726,0.18903493944689595,-0.16041626472981385,-0.014360727051850498,0.41760193438183124,0.00015570179704191717,-0.4643708524487296,0.0003003307951777153,0.11450642075637588,-0.0001577151045307406,-0.20045198115214358,-0.14425339425853734,-0.0003862885428195349,0.18773177554909995,-0.01844362578153509,2.8454807112582222e-05,0.17102698901426744,-0.007926705615445244,0.00015189809147897083,0.1089530829999273,1.333869250212105e-05,0.22195491162283978,-0.14525303184816937,0.10331336165576353,0.0010136355104121688,-0.08742167031804318,-0.02808714317913604,-0.0030093689484249095,-0.04210698149121162,-0.00011790106890879464,0.017061804067107313,-0.014901378074611504,0.0009664840476615423,0.08998012193375293,0.00032326678867994644,0.18766631496599748,0.019553968004790503,-0.08227019007995409,-0.1925548862094271,-5.038784838645874e-05,0.2951268405897721,0.00033063432927243045,0.1255538185263631,0.20913882980853513
-0.009840605282051227,0.00032265017341981064,0.0028188402437236667,3.678205650575743e-05,0.17562799556772477,0.005795110174089947,0.003994367289646017,-0.34416442297942185,-0.05976255982023094,0.00081380263807127,0.06327855733437387,0.00109577709267746,0.3340993079700331,-0.00040478481534289405,-0.41388671723719056,-0.05648899114591534,0.0003661284745582631,-0.26681023013839666,-0.3651637942897682,1.8204914851832955e-05,-0.08126123252444131,0.004269909334256015,-0.00017732552155155166,0.05829757696782844,4.536135428216681e-05,0.11388465779954635,0.16293641927415883,-0.013900030426017868,-0.00037125033543661956,-0.05679917314998089,-0.03151103841301361,-0.0028703766786213657,-0.03758768674694167,-9.79540322060425e-06,0.03392644348776575,-0.07719305433328554,-0.0006154869248758019,-0.04871148968097521,-0.0006072621368189076,-0.29762458586875373,0.11591400843695066,0.20322008690182236,-0.19315804073148019,7.931580212664255e-05,-0.16098908653693467,0.00043229650393368095,0.26951277583335437,0.09105312390512958
0.013988286622633244,0.00023286025368271672,-0.010809643648768743,0.0004679512685076263,0.3604750732667037,0.09711093785863917,0.029898943727182666,0.41357125546000734,0.008174635494557277,-0.0010107258862892842,-0.03387212369508606,-0.0005213872423786965,0.16899245633158982,0.00024762878664457864,-0.1190034636415291,0.32774196387387206,-0.00027558810184830616,0.08684953248829268,0.35279638274636627,-1.718480067900964e-05,-0.20017220504002603,0.009737236591215672,-0.0004022787160289125,-0.13691192427932738,1.9558637768359494e-05,0.11687288818072109,-0.062120883301821764,-0.1631211927527004,-0.0019164814098199575,-0.07485084060925323,-0.02952837202010557,-0.015259696822027007,-0.20510663807562812,-0.0003599970995940341,0.12984775359503303,-0.1621597361663913,-0.00033132489544681297,-0.09551012727993437,0.0005011470057834572,0.12427959466842073,-0.155796311803873,0.04788172804401332,-0.11108843340120203,9.484043808137309e-05,-0.2585917024591127,0.0004020548754193324,0.2753873029181522,0.06218505078112364
-0.001745301531575963,0.00010743632506848525,-0.008147678077718741,1.6429972617531773e-05,-0.03560416701891557,-0.0323348345272782,0.01367859920986512,0.11996097595230709,-0.05067937517990166,-0.00015687224465500362,0.09107563640800269,0.000123991049750939,0.22032856188204442,4.139067275375015e-05,-0.09452343320283643,-0.16605892984135195,-7.674484017475572e-05,-0.02693785322243052,-0.028848380190078925,4.62230340204124e-05,0.20572622838638316,-0.009179897971608291,-9.684354455521691e-05,-0.1295667785332005,2.2474193638292455e-05,-0.3384045329424266,-0.3863294577092892,0.10335512856974692,0.0018807959170890373,-0.4517947252978393,0.09511770247846683,0.009870439108491579,0.13488974825592354,0.00030907615537383964,-0.04954409630250386,0.21652028867896336,-0.0034352052739891805,-0.3843454879359381,0.00011276409169999815,0.03640999773252062,0.12159924241667487,-0.22060081839051868,0.10700512472598603,5.507512969180278e-05,-0.12475300072563444,0.0002646463350781513,0.16999571361230034,0.05194463198126831
0.0056661179515735014,-0.008689453669261034,0.16411647308776534,-2.460798932652403e-05,-0.10670596992659323,0.5446363919641867,-0.04012716631529552,-0.02231702927599692,0.12318675680304376,-3.960630999926011e-05,0.44788838949661514,-7.496195211528625e-05,0.1569518721085128,0.0002788409423048526,0.24105081823058175,-0.048151314364216394,0.00023818037296064338,-0.10780314856920077,-0.03949294088597359,-2.1557166529908794e-05,-0.16138286121643533,0.007564544776603712,-0.0001708556807619009,-0.07981222652422056,4.785039108066884e-06,-0.20658209897270027,0.16448495765039306,-0.14140200133475064,-0.0014221382995007045,-0.03258395254588912,0.06422067819860863,-0.002138063840226852,-0.02697588412191741,6.287064610475604e-06,0.0805677158089253,-0.13333710148027386,0.000368665409321794,0.03686940148403982,0.00022986763232892598,0.14550046594308688,0.04208416314237503,-0.09023826159868042,-0.05715104749791139,-4.900403095409048e-05,0.2986235864839523,0.000340522707706127,0.1289723289963517,0.23432578397752513
-0.017274898173065545,-0.0032609141764626975,0.028807259345282304,-5.031000546627199e-06,-0.022953880581124055,0.09955819865009544,-0.060099648660995146,-0.023721199292199742,0.1741633867571788,5.183574013466612e-05,-0.1990703189984471,-0.00019706223588199568,-0.3286307717449031,-0.0001251588465253492,0.00958434202628512,0.49261178628373986,0.0004270728320007865,-0.16571502407507635,-0.13689960399544335,-4.108690075317569e-05,-0.23987109105862325,0.010972257828976135,-2.8927136893846166e-05,0.09402030830613102,1.1712334562629263e-05,0.0688055766785696,0.13774690344046298,0.02284973587671534,0.0001708096413759218,0.03795591472113696,0.02241292740609887,0.006706644262564589,0.09314167229989034,0.00025627696082829073,-0.05197768153231359,0.19006500112903765,-0.002804602327218248,-0.28783588455901093,-0.0003485682458359656,-0.1133564260596127,0.28108881293453797,-0.3177147539989582,0.23071229841676888,3.8228627609604776e-05,-0.010849916434166915,0.000339252022886688,0.18468193712684244,0.11829343525186543
0.7817914124887441,0.008171016987558491,0.013620689606371405,1.2051054818728945e-05,0.041035621218243404,-0.18175479223531407,0.07970374956558304,0.005301232625652445,-0.1714750434368037,-1.7671509053421856e-05,-0.03976140970513667,-2.6832231230730635e-05,-0.08879853118679977,-9.471831186557092e-05,-0.07478206056480527,0.024716829114217995,-0.00012656704024556416,0.06640685837017278,0.019159489857572515,1.176758990474248e-05,0.10279597342393443,-0.004862146504258873,0.00013008741637097226,0.0828870372184645,9.811378996981813e-06,0.08363494370016179,0.018900228970541957,0.07179363742396136,0.0007072208946761966,-0.07892771795289881,-0.024235618946209115,0.0001020906422541412,0.0006576419781974141,3.2617326085323515e-06,0.02299687277137526,-0.053605395229526946,0.0003592461381808118,0.03978048806394256,0.0001128640396577157,0.09295986224737066,0.060222971872025396,-0.12043736530964118,-0.1648230944383884,-4.810815326405405e-05,0.32226044788648833,0.00041750352583638935,0.16659645672988885,0.26511050221095145
-0.006581293427145388,-0.0015435098700424038,-0.020154043432755512,0.0003809661122033491,0.5645358674341554,0.11595000053537281,-0.002154944273721473,-0.06844583856614272,0.006840370993867389,-0.00048777337867309906,0.010151448370722876,-0.0007297809181023287,-0.2566266172453423,0.00013516008621192142,0.1932890472873117,-0.2804987921730886,-4.361749670359651e-05,-0.0007354448983350264,-0.22045314332688826,5.734456119551651e-05,0.2050581661491756,-0.008988523569295657,-0.00010395245073293906,0.1413338555538325,0.00015167720404371177,-0.13423845031899453,0.010442786122196832,0.13846009473835272,0.0010689885290125637,0.25088149348372346,0.01592554956668689,-0.008201056303996106,-0.11415420679580485,-0.00038531457119256524,-0.04473572159157364,0.07384304228157917,0.0013618233001017452,0.09511518718921719,0.0005724601082447203,0.2315420577348908,-0.10524876171018151,-0.13313065414946565,0.11240924738185135,8.525500083944042e-05,-0.24930406706064534,0.00040136806078450274,0.2780754734175535,0.07303872014392354
-0.014494762443158872,0.009186587844622734,0.14034793360553674,1.2004857532337816e-06,0.009199677576915017,-0.044001207578979254,0.03985387727401985,-0.011200360436864575,-0.0077816906844037975,1.978127753307824e-05,0.2078019540367831,-2.7812566362829174e-05,-0.0032655395091613477,6.459505229718618e-05,0.11632489175765624,0.009648536100726524,0.0003743633369735667,-0.19242049580325593,-0.0979277409772341,-2.8841570096175756e-05,-0.23917940002449167,0.011234146437044342,-0.000211470436055304,-0.14391313814197698,-6.508788623734653e-05,0.3959147296859155,-0.5022737557335488,0.10944192494665153,0.00108974826448404,0.17564022285401582,-0.10249382435777253,-0.002077756129277995,-0.03139052319719842,-0.00020562187463924248,-0.14989121687490903,0.42045126308554187,3.855848028475398e-05,-0.0356741039885817,0.00031152475961058063,0.07150506479712843,-0.17790532724440702,0.20867428758868115,-0.04685457144690724,-2.517514697162797e-05,0.13082136421833515,9.988742997707132e-05,0.027064932389028653,0.17468913626416593
-0.02219159308790085,0.014104548254231146,0.040765231348043565,9.437681429054252e-06,-0.01911661096928764,0.10193384137729565,-0.040001507825082605,0.009199094895796804,-0.06589444629993511,2.259675823221169e-06,0.16444222684604587,-3.760421486317297e-05,-0.20549404057679438,-0.00020986965664052302,-0.13598865068144916,0.1279542707189329,-5.123607206116886e-05,0.035153166526245304,-0.11248268079274114,3.258349574822079e-05,0.2760304886467659,-0.01312411012802496,0.000416999032458163,0.17220345333395734,-3.90219775091334e-05,0.16308134365108595,-0.29511925590992727,-0.43947758740264364,-0.004205780629947344,-0.26703039471819157,-0.006993298574688728,-0.012108678547079926,-0.1608506011019476,-0.00024332650962013055,0.11868579696986443,-0.03913244729393578,0.0031757024367671718,0.35976718678235625,-0.0004211198565233226,-0.12423808773772371,0.09790164565587506,0.08573555123314813,0.40410409967027594,1.004365916602715e-05,-0.01602628316999301,3.040666536060585e-05,0.015568949027397177,0.10662705189216558
0.007866068124957637,-0.6392918575123582,-0.0063987708117145955,1.5754868440829723e-06,0.0034130974182057456,-0.0377774725076827,0.29581649791249176,-0.013889174075875045,0.178940299343011,2.273388728555187e-05,0.037707474860394115,8.736622159898396e-06,-0.050811658457837756,-7.565064654224529e-05,-0.059137743037187045,0.009535081129704078,-3.0514258041007364e-05,0.005692034939379082,-0.024544777195695682,2.1827126869897407e-05,0.15551728909888177,-0.0072588456852923046,7.711723725113736e-05,-0.26215475253331033,-0.00014586983944745664,0.04709623511506448,0.11831632489617719,-0.21827015899282123,-0.002309723081095945,0.0093796433115328,0.12747688373558846,-0.0068186459097546465,-0.09049892990415707,-0.0003377789383440622,-0.20745227219371504,0.14156563439616598,0.0006838312951837995,0.0719992525059252,-7.085728305284946e-05,-0.003751463185199507,0.06181385396425284,-0.15323981577435197,-0.2071917566564351,2.066075388622223e-05,-0.1928499644219532,-0.00043929128606766757,-0.21938903604803986,0.23787561568931506
0.016963060251377587,-0.026776319139647325,0.0013183853740078796,-2.4867081279858436e-06,-0.007767195770524991,0.016615239799527046,0.013618999636557817,-0.004779497383485833,-0.003993319437739083,2.6341415456605412e-05,0.024078310020278347,5.39877108590252e-05,0.04703422546504646,2.6306985331207612e-05,-0.0016486198225476368,0.0788186202655973,-0.0006550857171379953,0.4856340414821988,-0.3296596676907475,-2.7307774435824084e-05,-0.31426693164378733,0.014963861639952614,-0.00035608698184060364,0.09237343302359644,0.00013218643127868858,-0.21452905218031387,-0.23333740188097785,0.018944049227121597,0.0003986652445398307,0.02736300923407285,-0.21822340718578226,0.0012337108989289504,0.011888980317704693,-6.292911936407253e-05,-0.05765232922399804,-0.13023408724010974,0.0006201997646403725,0.08805501247594247,-0.00047468057795097885,-0.35046191378052116,-0.3162867562668342,-0.31278990356023645,-0.08888816460804999,5.132354755128972e-06,-0.06579329388620327,-0.00018377862600478162,-0.09558978691317428,0.13395141736717284
-0.005384287170314957,0.002380892925020658,0.08603624007826967,-6.077409331923405e-07,-0.02553602161481626,0.16831144472610632,-0.4188290957643046,0.023886250948412367,-0.5520272318734741,-8.630445266991423e-05,-0.34042556536574436,-7.97579576405331e-05,0.09953015642058503,0.0002041940306313197,0.16268861178703378,-0.00442737459435306,0.00010063230456039534,-0.02394558038464878,-0.12600752287551664,-3.409450771410607e-06,-0.052611681326823936,0.002524387002407566,-0.00010580616432766519,-0.19813429903985083,-7.660587706070094e-05,0.015285646323459245,-0.0729952719195746,-0.0856086492442044,-0.0008485239753053905,0.0661074828944059,0.03831702556544061,-0.0015238112749516057,-0.019639811307624683,-2.6708068232381312e-05,0.015941381624129784,0.0020164046637889833,0.0007280058816409886,0.0869963376871259,-1.3049310205971504e-05,0.11561676405416675,0.27014937922981835,-0.04619194284376119,-0.13063334698110315,2.2796634611496775e-05,-0.19839724298588918,-0.0004358485127916184,-0.2164631246447321,0.23105028364421026
-0.003078232634937103,0.009407714876482638,-0.0065443905888436325,-5.530279623540262e-08,0.0008480189454782646,-0.006072776658033268,0.016873208483266323,-6.874807468072478e-05,0.0073928085582755714,-1.1262933305777335e-06,0.021486287997890468,-2.0081149842853608e-06,-0.01342877704763024,-1.7866315147715868e-05,-0.01966634400548326,0.019142463080599345,-9.004049600588167e-05,0.05967658352429744,-0.04778565420396472,6.446029641610391e-06,0.02800680244277059,-0.0012533360712888974,-2.8068539400765068e-05,-0.12832779730514074,-5.461137158384514e-05,0.07504860249014728,0.030961877826782322,0.13418518212651764,0.0013205640732441744,0.0630521726264345,0.44122987960274884,0.006456980951601639,0.09932201745353601,0.0008672180911026633,0.7554019283047727,0.2904259587389745,0.0011669243514455478,0.11196037346569644,-0.0002085777300613947,-0.16306509418511175,-0.16327879646431318,-0.12266353121529906,-0.06441483589580961,2.138624153919016e-06,-0.02165139554151976,-5.0561382385213086e-05,-0.02531061163277565,0.027426279861519857
-0.00290694916824578,0.048287124324937244,0.025430050550035627,1.5167608323681676e-06,0.0016489219215857134,-0.00872601595771695,0.12227622313126943,-0.0042086346461696076,0.07285592968492693,2.8341707165160853e-06,-0.024264995629644383,3.9047178343154175e-06,-0.008780171954906752,-2.2822124457244863e-05,-0.024098246808695073,-0.012323845238495093,-3.0032786382792868e-05,0.007681717927040479,0.009933055184953845,9.329223816906633e-06,0.06232945212769988,-0.002883067766809603,1.31563909107046e-05,-0.058650038409270674,-1.5448860560714423e-05,-0.17072254731533798,0.1433698952835172,-0.10762453627508814,-0.0010490622661076556,-0.014081679041779037,-0.7654084479534536,0.006797510683694266,0.08410042788764067,0.00046549440966259746,0.383432267096173,0.31867810289121334,0.00027957353126632176,0.007231674894217372,0.0001832526562798934,0.13584977465736275,0.12366377573360961,0.07389920255346084,-0.04262505561453074,8.400114179855955e-06,-0.07763169174503157,-0.0001768770815000495,-0.08846461346694806,0.09903509455318538
0.09804485047757243,0.019742936013585607,-0.3061370737349849,3.329709336949114e-06,0.08112578726380736,-0.3605327656039387,-0.09319781530378447,-0.010596284339637982,0.2887649311802041,3.678951127141079e-05,-0.24715031129445836,-1.0798728432236092e-06,0.21345874714076007,0.00031294715505301047,0.2707105807475527,-0.07238509904485839,0.0002767376000639421,-0.11564027101307653,-0.12464015183916734,-2.294562614674075e-05,-0.1870647605903163,0.008782372062647974,-0.0001965704572932273,-0.13789162574761954,-2.3106588176031116e-05,-0.2375631429462867,-0.007311900729983962,-0.2959989418201959,-0.0028591730998698884,0.02849433166589194,0.11946431717303654,-0.003374704328774717,-0.041858529018908075,-8.93041100376505e-06,0.059494181186728445,-0.034008916503556315,7.774744937790309e-05,0.004848847289588924,2.5912455211575345e-05,-0.011768756023831692,-0.06315733060495637,0.2270544746866423,0.2946937883724123,-1.785097706250781e-05,0.10922667896183141,6.942560709404992e-05,0.009072115664474656,0.28132951428004205
0.012854662352330808,0.06032429448915543,0.03620884939813541,6.592934341944203e-07,-0.0031128449205702047,0.03550013655202191,-0.11145988743222708,0.002280330936623193,-0.023436264146362323,-4.176039494823905e-06,-0.12099658748947487,-1.0293103441633578e-05,0.04965401049764464,7.637669764114843e-05,0.09143995652407017,-0.12375059643429139,0.0006784617273633233,-0.4738065105917903,0.3583300728274144,-1.4390109222807803e-05,0.02773837412830167,-0.001646246829491889,0.00025638457930057335,0.4027187327736522,0.00012635043968666092,-0.05226489954258774,0.039247325274825454,-0.14302297811932704,-0.0014167929191930195,-0.12181960990317298,-0.04712902906102846,-0.004334152981680605,-0.05897319992102919,-0.0001762006449437068,-0.06929621126830397,0.18315478130765078,0.0007198667536572875,0.06946858541513148,-0.0002695454504876781,-0.27452976268563495,-0.35400492833430275,-0.2634624567133162,-0.15162864006036977,4.133955788728792e-06,-0.07131230604000792,-0.00021352144102412804,-0.11181825434167905,0.15769458251468643
-0.019364430170946884,-0.05573601402787978,-0.11112224133681893,-1.4604799805413995e-05,-0.05217316998104937,0.17170213989337363,0.5697791259021049,-0.023932768831425363,-0.05871748720353097,-2.3879044913896464e-05,-0.1468439155939054,-3.638579498830881e-05,0.0544537873678673,0.00011080566464678713,0.10666832993196648,-0.03375295805754574,0.00025352788768326557,-0.1472957358090057,0.06106572328068128,-2.555567507236129e-05,-0.16927618645031767,0.00786150813097071,-5.3250103744448064e-05,0.3263808952377572,0.00016603186709169933,0.008465363163613274,-0.2512941937363315,0.24774603057151523,0.002654101894301284,0.00629864964494573,0.052939210733186186,0.005637753324986758,0.07660194603393672,0.0002828863005738574,0.17814466635146292,-0.28680936274544144,-0.00017856547775485886,0.00116365898498342,-2.989331270863776e-06,0.08806497391367679,0.2060090169889459,0.10471494954907971,0.08837218195820434,1.7937411634236213e-05,-0.1593864991878237,-0.00036706647066460385,-0.18481343251868906,0.2229619532235283
0.005283999229016699,0.0039045256880550173,0.012158781733820562,-2.3575149671510365e-05,-0.04530494326029725,-0.01939764817309913,0.064315925944323,-0.021311343336400838,-0.09559383366507096,0.00017643455885709813,0.0759978288614564,0.0004197790455326323,0.3745631854357802,0.00011041323694108408,-0.008021888725606965,-0.29868524149067766,-0.0005360444215614978,0.29792198842212003,0.2987278167703911,-2.884797972429613e-05,-0.05165080727258384,0.0019723434466158538,0.00018942463202645767,0.058881116669201525,-6.311422706644631e-05,0.2962517115857294,0.14153905193314203,-0.07498784533387305,-0.0011719414404417756,0.31390784894857343,-0.03984979512491452,-0.0003013334207116759,-0.0029106673065866385,6.891496823873657e-06,-0.05345244507568972,0.14965575312976612,-0.0005027128828840807,-0.03516996105227826,-0.00047332742108507523,-0.16301151238398398,0.21780868294157893,-0.2508722356659254,0.3972929893305925,3.386357623189783e-05,-0.029964094079547306,0.00023571013551850517,0.1310655013064594,0.10605981310266885
-0.005103957287264901,0.7435869403427553,0.051780623210560706,2.9248665391109897e-06,0.012829775123204247,-0.06296743683791768,0.1954570347084223,-0.00877232853826925,0.20789686168027194,2.4339865655058454e-05,0.10408660170592654,2.0114293991760926e-05,-0.05457301381362085,-9.537924127204861e-05,-0.08155783812215568,0.017370687164039084,-0.000121495341943735,0.06335088569764581,-0.020897375081609156,1.4517160191412612e-05,0.09139495256966107,-0.004224874204340078,2.0515283786354522e-05,-0.17131250971673673,-8.560978386513357e-05,0.03731553297422216,0.07246188804057688,-0.07837610893766102,-0.0008729841931731181,0.02248405419603964,0.1558921405054197,-0.00394002532455275,-0.05181753143021477,-0.00024090106818242164,-0.17594369013959285,0.016404086710467877,0.0003029104421109995,0.03794885575324369,-4.284931050273904e-05,0.02826465661006321,0.11071544918210109,-0.10204423202232295,-0.16172024398119206,2.3058531328612904e-05,-0.21289106876844927,-0.0004839363657456707,-0.24172726180019244,0.2635652434549842
0.005498353806343701,-0.15128484798428402,-0.04697296262566536,9.253245410654764e-06,0.05981054319194185,-0.26120094882109074,-0.4997014266584549,0.018919650433280727,0.2359578277572684,6.593663449041178e-05,0.41359721329580645,8.714105298186851e-05,-0.050409816649444605,-0.00014046387712439415,-0.11432399400610486,0.0033758374725520596,-0.00013405510052999828,0.06196098679813473,0.14219457870307506,-2.0247462572206333e-05,-0.11560516425564799,0.00533311736759673,-1.1862761205473982e-05,0.2979497694356145,0.00014472915646244626,0.004000860093733923,-0.042970137968603474,0.2166707575029646,0.0021867675842539443,0.005946606869433404,0.015599553233792843,0.004164752933989553,0.0559504262534634,0.00017641676231105747,0.09099752972443136,-0.08609589479266143,-0.00018984964748911678,-0.013169583707776822,8.558984514537814e-05,0.13379205844884623,0.22467565532969835,0.04702847783601544,-0.0579599005109172,2.2512751681624836e-05,-0.1991281024928077,-0.00044116402747130504,-0.21934420207920974,0.2336783134452002
0.02085084870470275,0.01923873792012782,-0.5404154029556502,-3.322960306741278e-05,-0.09025026312974187,0.31893274886098083,-0.04792062423473325,0.0004443062970915771,-0.19006891826711492,-8.675520807366708e-06,0.071856921436447,1.5339571096812883e-05,-0.04998662827637868,-8.680741218535257e-05,-0.09782385418998303,0.07550825689922172,-0.0003162614501545914,0.19742355668290393,-0.04157219170001765,1.2654126137887434e-05,0.10140656894897948,-0.004795229999982944,0.0001357765716483793,0.08964581247005314,8.556419703518966e-06,0.08986945108346212,0.25550176458173046,0.09852552893269938,0.0008259837491752022,-0.1130375701875597,0.029387800263240935,7.455195417301168e-05,0.0009722970978569397,-7.149518978520428e-05,-0.11868133569793343,0.21190042969851078,-0.001878970511200837,-0.24457644899456205,0.00044494774920206373,0.057747601303437174,-0.3043061807427315,0.2617256129480916,0.1139479647493175,-7.205386482422166e-06,-0.02230003384006049,-0.0002076104477823174,-0.12066151018401236,0.26246141245526466
0.050607479498843026,-0.018474743211768715,-0.10210867191208221,-3.182560665030796e-06,-0.014945499892914525,0.1071669396729373,-0.1350946014784072,0.007139134463947418,0.0780055888977011,-1.5439869308622576e-05,0.027067333285590082,-3.423041830081526e-05,-0.1306283364710406,-0.00017238096203816655,-0.12133034212187052,-0.05761197546755892,0.0003251484971449699,-0.2754747914624919,0.10596233996209285,4.0228543725827324e-05,0.24311115889917975,-0.011127272729819454,-3.471714982290762e-05,-0.46513325125055277,-0.00018559218451505045,0.10044612516402024,-0.10078549490125197,0.23350653350659786,0.002375776459351891,0.18253971460609963,-0.23077629422137194,0.00939969518837614,0.12255610134511863,0.00028233952261250665,0.06779101527148756,-0.4225577496190176,-0.000986882091409139,-0.06780960083443863,-0.00037311344619213506,-0.24789405936889125,-0.1580681521381535,-0.13164911765255327,0.21984934080800217,-2.7347040532387127e-07,-0.01047325413435322,-9.400978534103038e-05,-0.05761084399507328,0.17973343485363474
-0.03825693017044249,-0.06240734198730915,0.7171758646136763,2.8289901222750913e-05,0.039973875428869064,-0.07805381949903518,0.022507671253832837,0.0034823356640665184,-0.024418674060303642,-1.918625203596076e-05,-0.13395141474991967,-1.963973833989744e-06,0.00113653119085687,-1.6144528425549526e-05,-0.04367966509308126,0.01536016269333197,-0.0002172115484114935,0.1281188005278976,-0.010384684784522868,1.2650005053595938e-05,0.08958179605792622,-0.004179489966714823,7.118084913296958e-05,0.05706110804689053,2.50766543561972e-05,-0.06016994979629474,0.20815274368662443,0.10218165979333767,0.0009900431638344741,-0.08200144762474396,0.06907209336871771,0.0029878562604687257,0.041395089416612865,0.00010265693805547652,-0.003832082425368446,-0.05738113077476425,-0.0018773803283125318,-0.22062062877452793,0.00026944102361908145,-0.0004215977694875475,-0.2558353902647409,0.2761829102890512,0.25871938336005657,-7.3917569917152055e-06,-0.009407695556654537,-0.00018192210481169166,-0.10974522613969959,0.2831910133565719
0.0011224708927291746,-0.0034290867650325824,-0.0004510289250590812,-4.3716020243484934e-05,0.024502420476399982,0.0038371666495587544,0.009076321989028137,-0.05326305127103025,0.008383909521624187,-4.4917760946522214e-05,-0.04608577329145488,-7.654496765303796e-05,0.047433885448409124,6.124156217980454e-05,-0.017564884522585422,0.05740660581945872,-1.5004643062378406e-05,-0.022757886284040695,0.1341170494277071,-1.7389835208674413e-05,-0.2338861589630742,0.011414350931877076,-0.0005333352449252924,-0.22655712681075735,5.2406221720842796e-05,-0.07354277810252931,0.1772664016033148,0.4609022391465279,0.004615987538187616,-0.3824190308262736,-0.03198636365749912,-0.004075885186012922,-0.06282714246909288,-0.0004357635296016547,-0.1705263819017221,0.16184544834448117,0.005344867185912993,0.5897221115176323,-0.00023213333144420136,-0.012403294166868285,0.025215494830546525,0.0074918911752807635,0.21233979987087187,1.8236134484374344e-05,-0.06683512542650383,0.00012546221081735463,0.0885900931041071,0.04357374060012997
